{"learner":{"attributes":{"scikit_learn":"{\"_estimator_type\": \"classifier\"}"},"feature_names":["Pclass","Sex","Age","SibSp","Parch","Fare","Embarked"],"feature_types":["int","int","float","int","int","float","int"],"gradient_booster":{"model":{"cats":{"enc":[],"feature_segments":[],"sorted_idx":[]},"gbtree_model_param":{"num_parallel_tree":"1","num_trees":"50"},"iteration_indptr":[0,1,2,3,4,5,6,7,8,9,10,11,12,13,14,15,16,17,18,19,20,21,22,23,24,25,26,27,28,29,30,31,32,33,34,35,36,37,38,39,40,41,42,43,44,45,46,47,48,49,50],"tree_info":[0,0,0,0,0,0,0,0,0,0,0,0,0,0,0,0,0,0,0,0,0,0,0,0,0,0,0,0,0,0,0,0,0,0,0,0,0,0,0,0,0,0,0,0,0,0,0,0,0,0],"trees":[{"base_weights":[-4.6088736E-8,1.5174298E0,-8.026033E-1,2.4137552E-1,4.5416197E-1,1.0900675E0,-9.0562326E-1,8.5058615E-2,-1.1644887E-1,2.0368771E-1,-6.988814E-2,-1.901981E-2,-1.08508326E-1],"categories":[],"categories_nodes":[],"categories_segments":[],"categories_sizes":[],"default_left":[0,0,0,0,0,0,0,0,0,0,0,0,0],"id":0,"left_children":[1,3,5,-1,7,9,11,-1,-1,-1,-1,-1,-1],"loss_changes":[2.0597461E2,5.4663315E1,2.2555458E1,0E0,1.8953007E1,1.1863965E1,1.3332649E1,0E0,0E0,0E0,0E0,0E0,0E0],"parents":[2147483647,0,0,1,1,2,2,4,4,5,5,6,6],"right_children":[2,4,6,-1,8,10,12,-1,-1,-1,-1,-1,-1],"split_conditions":[1E0,3E0,7E0,2.4137552E-1,2.345E1,3E0,2E0,8.5058615E-2,-1.1644887E-1,2.0368771E-1,-6.988814E-2,-1.901981E-2,-1.08508326E-1],"split_indices":[1,0,2,0,5,3,0,0,0,0,0,0,0],"split_type":[0,0,0,0,0,0,0,0,0,0,0,0,0],"sum_hessian":[1.6712358E2,5.7507412E1,1.0961617E2,3.0514137E1,2.6993275E1,5.163931E0,1.0445224E2,2.2064068E1,4.929207E0,3.2861378E0,1.8777931E0,2.1359896E1,8.309235E1],"tree_param":{"num_deleted":"0","num_feature":"7","num_nodes":"13","size_leaf_vector":"1"}},{"base_weights":[-8.6586317E-4,1.3269385E0,-7.3978657E-1,2.0797864E-1,4.026783E-1,9.839745E-1,-8.3752483E-1,7.543265E-2,-1.09784655E-1,1.8196383E-1,-6.615641E-2,-1.7286064E-2,-1.0084095E-1],"categories":[],"categories_nodes":[],"categories_segments":[],"categories_sizes":[],"default_left":[0,0,0,0,0,0,0,0,0,0,0,0,0],"id":1,"left_children":[1,3,5,-1,7,9,11,-1,-1,-1,-1,-1,-1],"loss_changes":[1.6523123E2,4.1059074E1,1.9052567E1,0E0,1.5744295E1,9.819407E0,1.1516571E1,0E0,0E0,0E0,0E0,0E0,0E0],"parents":[2147483647,0,0,1,1,2,2,4,4,5,5,6,6],"right_children":[2,4,6,-1,8,10,12,-1,-1,-1,-1,-1,-1],"split_conditions":[1E0,3E0,7E0,2.0797864E-1,2.345E1,3E0,2E0,7.543265E-2,-1.09784655E-1,1.8196383E-1,-6.615641E-2,-1.7286064E-2,-1.0084095E-1],"split_indices":[1,0,2,0,5,3,0,0,0,0,0,0,0],"split_type":[0,0,0,0,0,0,0,0,0,0,0,0,0],"sum_hessian":[1.6640651E2,5.9211166E1,1.0719534E2,3.1942486E1,2.7268679E1,5.265359E0,1.01929985E2,2.2494404E1,4.774275E0,3.4218297E0,1.8435293E0,2.1257908E1,8.067208E1],"tree_param":{"num_deleted":"0","num_feature":"7","num_nodes":"13","size_leaf_vector":"1"}},{"base_weights":[-1.1097098E-3,1.1821591E0,-6.8369025E-1,1.8462358E-1,3.5846955E-1,8.984616E-1,-7.762066E-1,6.72342E-2,-1.0388072E-1,1.6527003E-1,-6.2693365E-2,-9.692196E-2,-2.3275642E-2],"categories":[],"categories_nodes":[],"categories_segments":[],"categories_sizes":[],"default_left":[0,0,0,0,0,0,0,0,0,0,0,0,0],"id":2,"left_children":[1,3,5,-1,7,9,11,-1,-1,-1,-1,-1,-1],"loss_changes":[1.34451E2,3.264923E1,1.614978E1,0E0,1.3164029E1,8.2792015E0,1.0292213E1,0E0,0E0,0E0,0E0,0E0,0E0],"parents":[2147483647,0,0,1,1,2,2,4,4,5,5,6,6],"right_children":[2,4,6,-1,8,10,12,-1,-1,-1,-1,-1,-1],"split_conditions":[1E0,3E0,7E0,1.8462358E-1,2.345E1,3E0,2.62875E1,6.72342E-2,-1.0388072E-1,1.6527003E-1,-6.2693365E-2,-9.692196E-2,-2.3275642E-2],"split_indices":[1,0,2,0,5,3,5,0,0,0,0,0,0],"split_type":[0,0,0,0,0,0,0,0,0,0,0,0,0],"sum_hessian":[1.6446576E2,5.989849E1,1.04567276E2,3.2475E1,2.7423492E1,5.295517E0,9.927176E1,2.2816914E1,4.606579E0,3.4875998E0,1.807917E0,7.267639E1,2.6595367E1],"tree_param":{"num_deleted":"0","num_feature":"7","num_nodes":"13","size_leaf_vector":"1"}},{"base_weights":[-1.0754536E-3,1.0669475E0,-6.3292134E-1,1.6726802E-1,3.2002077E-1,8.2788134E-1,-7.2028875E-1,6.0158122E-2,-9.8580375E-2,1.5203464E-1,-5.9466746E-2,-1.3056775E-2,-8.802437E-2],"categories":[],"categories_nodes":[],"categories_segments":[],"categories_sizes":[],"default_left":[0,0,0,0,0,0,0,0,0,0,0,0,0],"id":3,"left_children":[1,3,5,-1,7,9,11,-1,-1,-1,-1,-1,-1],"loss_changes":[1.10474464E2,2.699607E1,1.3723507E1,0E0,1.106654E1,7.080174E0,9.09029E0,0E0,0E0,0E0,0E0,0E0,0E0],"parents":[2147483647,0,0,1,1,2,2,4,4,5,5,6,6],"right_children":[2,4,6,-1,8,10,12,-1,-1,-1,-1,-1,-1],"split_conditions":[1E0,3E0,7E0,1.6726802E-1,2.345E1,3E0,2E0,6.0158122E-2,-9.8580375E-2,1.5203464E-1,-5.9466746E-2,-1.3056775E-2,-8.802437E-2],"split_indices":[1,0,2,0,5,3,0,0,0,0,0,0,0],"split_type":[0,0,0,0,0,0,0,0,0,0,0,0,0],"sum_hessian":[1.6170741E2,5.9851128E1,1.0185629E2,3.2364876E1,2.7486254E1,5.2697086E0,9.6586586E1,2.3054564E1,4.43169E0,3.4981425E0,1.771566E0,2.0995773E1,7.559081E1],"tree_param":{"num_deleted":"0","num_feature":"7","num_nodes":"13","size_leaf_vector":"1"}},{"base_weights":[-7.744174E-4,9.720081E-1,-5.8657426E-1,1.5378675E0,2.862452E-1,5.740833E-1,-6.840733E-1,5.093155E-2,1.5615755E-1,5.3986263E-2,-9.376609E-2,1.5368164E-1,-8.416352E-2,-8.753975E-2,-1.4877169E-2],"categories":[],"categories_nodes":[],"categories_segments":[],"categories_sizes":[],"default_left":[0,0,0,0,0,0,0,0,0,0,0,0,0,0,0],"id":4,"left_children":[1,3,5,7,9,11,13,-1,-1,-1,-1,-1,-1,-1,-1],"loss_changes":[9.138772E1,2.2949635E1,1.1719585E1,4.4021606E-3,9.346367E0,1.2606414E1,9.373268E0,0E0,0E0,0E0,0E0,0E0,0E0,0E0,0E0],"parents":[2147483647,0,0,1,1,2,2,3,3,4,4,5,5,6,6],"right_children":[2,4,6,8,10,12,14,-1,-1,-1,-1,-1,-1,-1,-1],"split_conditions":[1E0,3E0,1.3E1,5E0,2.345E1,3E0,2.62875E1,5.093155E-2,1.5615755E-1,5.3986263E-2,-9.376609E-2,1.5368164E-1,-8.416352E-2,-8.753975E-2,-1.4877169E-2],"split_indices":[1,0,2,2,5,3,5,0,0,0,0,0,0,0,0],"split_type":[0,0,0,0,0,0,0,0,0,0,0,0,0,0,0],"sum_hessian":[1.5836937E2,5.9276012E1,9.909337E1,3.1796478E1,2.7479532E1,7.3003054E0,9.179306E1,1.2229415E0,3.0573538E1,2.3225626E1,4.2539053E0,4.294424E0,3.0058813E0,6.715545E1,2.4637613E1],"tree_param":{"num_deleted":"0","num_feature":"7","num_nodes":"15","size_leaf_vector":"1"}},{"base_weights":[-2.4175124E-4,8.923501E-1,-5.443436E-1,1.4307559E-1,2.563412E-1,7.2128975E-1,-6.217606E-1,9.43838E-2,-1.4944349E-2,1.3157423E-1,-5.224338E-2,-7.973866E-2,-1.6714273E-2],"categories":[],"categories_nodes":[],"categories_segments":[],"categories_sizes":[],"default_left":[0,0,0,0,0,0,0,0,0,0,0,0,0],"id":5,"left_children":[1,3,5,-1,7,9,11,-1,-1,-1,-1,-1,-1],"loss_changes":[7.609271E1,1.995211E1,9.98613E0,0E0,8.069862E0,5.1780796E0,7.2336044E0,0E0,0E0,0E0,0E0,0E0,0E0],"parents":[2147483647,0,0,1,1,2,2,4,4,5,5,6,6],"right_children":[2,4,6,-1,8,10,12,-1,-1,-1,-1,-1,-1],"split_conditions":[1E0,3E0,7E0,1.4307559E-1,2E0,3E0,2.62875E1,9.43838E-2,-1.4944349E-2,1.3157423E-1,-5.224338E-2,-7.973866E-2,-1.6714273E-2],"split_indices":[1,0,2,0,6,3,5,0,0,0,0,0,0],"split_type":[0,0,0,0,0,0,0,0,0,0,0,0,0],"sum_hessian":[1.5467853E2,5.8337154E1,9.634137E1,3.0916E1,2.7421156E1,5.073964E0,9.12674E1,9.685549E0,1.7735605E1,3.393902E0,1.6800618E0,6.529064E1,2.5976759E1],"tree_param":{"num_deleted":"0","num_feature":"7","num_nodes":"13","size_leaf_vector":"1"}},{"base_weights":[1.0060467E-3,8.233166E-1,-5.048306E-1,1.3409282E0,2.3333469E-1,5.0800943E-1,-5.917987E-1,4.1280057E-2,1.363885E-1,4.5562554E-2,-8.865696E-2,1.3740627E-1,-7.804398E-2,-7.719815E-2,-1.1968729E-2],"categories":[],"categories_nodes":[],"categories_segments":[],"categories_sizes":[],"default_left":[0,0,0,0,0,0,0,0,0,0,0,0,0,0,0],"id":6,"left_children":[1,3,5,7,9,11,13,-1,-1,-1,-1,-1,-1,-1,-1],"loss_changes":[6.360721E1,1.7472507E1,8.64045E0,9.3486786E-2,7.48092E0,1.0027118E1,7.364048E0,0E0,0E0,0E0,0E0,0E0,0E0,0E0,0E0],"parents":[2147483647,0,0,1,1,2,2,3,3,4,4,5,5,6,6],"right_children":[2,4,6,8,10,12,14,-1,-1,-1,-1,-1,-1,-1,-1],"split_conditions":[1E0,3E0,1.3E1,5E0,2.345E1,3E0,2.62875E1,4.1280057E-2,1.363885E-1,4.5562554E-2,-8.865696E-2,1.3740627E-1,-7.804398E-2,-7.719815E-2,-1.1968729E-2],"split_indices":[1,0,2,2,5,3,5,0,0,0,0,0,0,0,0],"split_type":[0,0,0,0,0,0,0,0,0,0,0,0,0,0,0],"sum_hessian":[1.5091933E2,5.7239925E1,9.367939E1,2.9811995E1,2.742793E1,7.02493E0,8.6654465E1,1.1777546E0,2.8634241E1,2.3380308E1,4.047622E0,4.1613555E0,2.863574E0,6.2258247E1,2.4396217E1],"tree_param":{"num_deleted":"0","num_feature":"7","num_nodes":"15","size_leaf_vector":"1"}},{"base_weights":[1.5198224E-3,7.6222193E-1,-4.6861154E-1,1.2660121E0,2.0901477E-1,4.7514665E-1,-5.500576E-1,3.9277103E-2,1.2880152E-1,4.108898E-2,-8.461549E-2,1.2837115E-1,-7.4222974E-2,-7.24433E-2,-1.0861245E-2],"categories":[],"categories_nodes":[],"categories_segments":[],"categories_sizes":[],"default_left":[0,0,0,0,0,0,0,0,0,0,0,0,0,0,0],"id":7,"left_children":[1,3,5,7,9,11,13,-1,-1,-1,-1,-1,-1,-1,-1],"loss_changes":[5.326568E1,1.5590347E1,7.3370514E0,6.239319E-2,6.378561E0,8.679363E0,6.4800415E0,0E0,0E0,0E0,0E0,0E0,0E0,0E0,0E0],"parents":[2147483647,0,0,1,1,2,2,3,3,4,4,5,5,6,6],"right_children":[2,4,6,8,10,12,14,-1,-1,-1,-1,-1,-1,-1,-1],"split_conditions":[1E0,3E0,1.3E1,5E0,2.345E1,3E0,2.62875E1,3.9277103E-2,1.2880152E-1,4.108898E-2,-8.461549E-2,1.2837115E-1,-7.4222974E-2,-7.24433E-2,-1.0861245E-2],"split_indices":[1,0,2,2,5,3,5,0,0,0,0,0,0,0,0],"split_type":[0,0,0,0,0,0,0,0,0,0,0,0,0,0,0],"sum_hessian":[1.4694202E2,5.5888924E1,9.1053085E1,2.8576561E1,2.7312363E1,6.849575E0,8.4203514E1,1.165658E0,2.7410904E1,2.3438671E1,3.8736918E0,4.0831275E0,2.7664478E0,5.9900967E1,2.4302547E1],"tree_param":{"num_deleted":"0","num_feature":"7","num_nodes":"15","size_leaf_vector":"1"}},{"base_weights":[2.0394246E-3,7.075793E-1,-4.3485692E-1,1.2013426E0,1.8720502E-1,6.1272293E-1,-4.9863455E-1,3.7385423E-2,1.2227606E-1,7.743686E-2,-1.6548859E-2,1.10925175E-1,-4.22559E-2,-5.994744E-2,1.3184632E-2],"categories":[],"categories_nodes":[],"categories_segments":[],"categories_sizes":[],"default_left":[0,0,0,0,0,0,0,0,0,0,0,0,0,0,0],"id":8,"left_children":[1,3,5,7,9,11,13,-1,-1,-1,-1,-1,-1,-1,-1],"loss_changes":[4.4684155E1,1.4018908E1,6.2870617E0,4.3735504E-2,5.962927E0,3.3404014E0,5.479395E0,0E0,0E0,0E0,0E0,0E0,0E0,0E0,0E0],"parents":[2147483647,0,0,1,1,2,2,3,3,4,4,5,5,6,6],"right_children":[2,4,6,8,10,12,14,-1,-1,-1,-1,-1,-1,-1,-1],"split_conditions":[1E0,3E0,7E0,5E0,2E0,3E0,5.25542E1,3.7385423E-2,1.2227606E-1,7.743686E-2,-1.6548859E-2,1.10925175E-1,-4.22559E-2,-5.994744E-2,1.3184632E-2],"split_indices":[1,0,2,2,6,3,5,0,0,0,0,0,0,0,0],"split_type":[0,0,0,0,0,0,0,0,0,0,0,0,0,0,0],"sum_hessian":[1.4296358E2,5.4435932E1,8.852765E1,2.7260693E1,2.7175241E1,4.586406E0,8.394124E1,1.1534123E0,2.6107279E1,9.749205E0,1.7426037E1,3.0514562E0,1.5349498E0,7.240921E1,1.1532032E1],"tree_param":{"num_deleted":"0","num_feature":"7","num_nodes":"15","size_leaf_vector":"1"}},{"base_weights":[3.771751E-3,6.591289E-1,-4.0205425E-1,1.1444807E0,1.7105584E-1,4.3879345E-1,-4.746057E-1,3.559674E-2,1.16558544E-1,3.498858E-2,-8.011045E-2,1.183303E-1,-6.828981E-2,-2.4027366E-3,-6.2477868E-2],"categories":[],"categories_nodes":[],"categories_segments":[],"categories_sizes":[],"default_left":[0,0,0,0,0,0,0,0,0,0,0,0,0,0,0],"id":9,"left_children":[1,3,5,7,9,11,13,-1,-1,-1,-1,-1,-1,-1,-1],"loss_changes":[3.7568615E1,1.2600416E1,5.530404E0,3.2894135E-2,5.1671286E0,7.0289946E0,5.4517803E0,0E0,0E0,0E0,0E0,0E0,0E0,0E0,0E0],"parents":[2147483647,0,0,1,1,2,2,3,3,4,4,5,5,6,6],"right_children":[2,4,6,8,10,12,14,-1,-1,-1,-1,-1,-1,-1,-1],"split_conditions":[1E0,3E0,1.3E1,5E0,2.345E1,3E0,2E0,3.559674E-2,1.16558544E-1,3.498858E-2,-8.011045E-2,1.183303E-1,-6.828981E-2,-2.4027366E-3,-6.2477868E-2],"split_indices":[1,0,2,2,5,3,0,0,0,0,0,0,0,0,0],"split_type":[0,0,0,0,0,0,0,0,0,0,0,0,0,0,0],"sum_hessian":[1.3925969E2,5.3018085E1,8.624161E1,2.5908825E1,2.7109262E1,6.4492216E0,7.979239E1,1.1411211E0,2.4767704E1,2.3437925E1,3.671337E0,3.8433292E0,2.6058922E0,2.0236097E1,5.955629E1],"tree_param":{"num_deleted":"0","num_feature":"7","num_nodes":"15","size_leaf_vector":"1"}},{"base_weights":[4.244262E-3,6.137203E-1,-3.724383E-1,1.0936469E0,1.5297814E-1,4.136331E-1,-4.4002193E-1,1.1467121E-1,5.5423427E-2,6.751103E-2,-1.619248E-2,1.1177327E-1,-6.507419E-2,-6.0362447E-2,-6.124724E-3],"categories":[],"categories_nodes":[],"categories_segments":[],"categories_sizes":[],"default_left":[0,0,0,0,0,0,0,0,0,0,0,0,0,0,0],"id":10,"left_children":[1,3,5,7,9,11,13,-1,-1,-1,-1,-1,-1,-1,-1],"loss_changes":[3.1558638E1,1.1442528E1,4.695733E0,9.591293E-2,4.7048936E0,6.154684E0,4.841275E0,0E0,0E0,0E0,0E0,0E0,0E0,0E0,0E0],"parents":[2147483647,0,0,1,1,2,2,3,3,4,4,5,5,6,6],"right_children":[2,4,6,8,10,12,14,-1,-1,-1,-1,-1,-1,-1,-1],"split_conditions":[1E0,3E0,1.3E1,1.5155E2,2E0,3E0,2.62875E1,1.1467121E-1,5.5423427E-2,6.751103E-2,-1.619248E-2,1.1177327E-1,-6.507419E-2,-6.0362447E-2,-6.124724E-3],"split_indices":[1,0,2,5,6,3,5,0,0,0,0,0,0,0,0],"split_type":[0,0,0,0,0,0,0,0,0,0,0,0,0,0,0],"sum_hessian":[1.3546747E2,5.1504086E1,8.396339E1,2.455402E1,2.6950066E1,6.241981E0,7.7721405E1,2.1329826E1,3.224193E0,9.708611E0,1.7241455E1,3.7266304E0,2.5153506E0,5.3862976E1,2.3858429E1],"tree_param":{"num_deleted":"0","num_feature":"7","num_nodes":"15","size_leaf_vector":"1"}},{"base_weights":[5.5904593E-3,5.732817E-1,-3.4477672E-1,1.0473523E0,1.40042E-1,4.3467847E-1,-4.045466E-1,2.9069105E-2,1.0704372E-1,2.9940555E-2,-7.5900465E-2,1.1353965E-1,-5.8571804E-2,-5.016419E-2,1.408989E-2],"categories":[],"categories_nodes":[],"categories_segments":[],"categories_sizes":[],"default_left":[0,0,0,0,0,0,0,0,0,0,0,0,0,0,0],"id":11,"left_children":[1,3,5,7,9,11,13,-1,-1,-1,-1,-1,-1,-1,-1],"loss_changes":[2.6634552E1,1.0348816E1,4.0339813E0,1.1236E-1,4.218154E0,5.226849E0,4.1715975E0,0E0,0E0,0E0,0E0,0E0,0E0,0E0,0E0],"parents":[2147483647,0,0,1,1,2,2,3,3,4,4,5,5,6,6],"right_children":[2,4,6,8,10,12,14,-1,-1,-1,-1,-1,-1,-1,-1],"split_conditions":[1E0,3E0,1E1,5E0,2.345E1,3E0,5.25542E1,2.9069105E-2,1.0704372E-1,2.9940555E-2,-7.5900465E-2,1.1353965E-1,-5.8571804E-2,-5.016419E-2,1.408989E-2],"split_indices":[1,0,2,2,5,3,5,0,0,0,0,0,0,0,0],"split_type":[0,0,0,0,0,0,0,0,0,0,0,0,0,0,0],"sum_hessian":[1.3191527E2,5.0101242E1,8.1814026E1,2.3246439E1,2.6854803E1,5.3800864E0,7.643394E1,1.0906352E0,2.2155804E1,2.3377857E1,3.4769464E0,3.1228728E0,2.2572136E0,6.4952065E1,1.14818735E1],"tree_param":{"num_deleted":"0","num_feature":"7","num_nodes":"15","size_leaf_vector":"1"}},{"base_weights":[6.189056E-3,5.3426665E-1,-3.180955E-1,1.0047742E0,1.2494247E-1,5.1603156E-1,-3.664211E-1,1.0613077E-1,4.6724655E-2,5.9175946E-2,-1.565694E-2,9.270849E-2,-3.1069083E-2,8.149243E-4,-4.9776483E-2],"categories":[],"categories_nodes":[],"categories_segments":[],"categories_sizes":[],"default_left":[0,0,0,0,0,0,0,0,0,0,0,0,0,0,0],"id":12,"left_children":[1,3,5,7,9,11,13,-1,-1,-1,-1,-1,-1,-1,-1],"loss_changes":[2.2344124E1,9.434005E0,3.448103E0,2.0153427E-1,3.7310257E0,1.933743E0,3.7925901E0,0E0,0E0,0E0,0E0,0E0,0E0,0E0,0E0],"parents":[2147483647,0,0,1,1,2,2,3,3,4,4,5,5,6,6],"right_children":[2,4,6,8,10,12,14,-1,-1,-1,-1,-1,-1,-1,-1],"split_conditions":[1E0,3E0,7E0,1.5155E2,2E0,3E0,2E0,1.0613077E-1,4.6724655E-2,5.9175946E-2,-1.565694E-2,9.270849E-2,-3.1069083E-2,8.149243E-4,-4.9776483E-2],"split_indices":[1,0,2,5,6,3,0,0,0,0,0,0,0,0,0],"split_type":[0,0,0,0,0,0,0,0,0,0,0,0,0,0,0],"sum_hessian":[1.284862E2,4.863673E1,7.984947E1,2.195049E1,2.6686241E1,3.8427763E0,7.600669E1,1.8979897E1,2.9705944E0,9.624439E0,1.7061802E1,2.4855444E0,1.3572319E0,1.997611E1,5.6030582E1],"tree_param":{"num_deleted":"0","num_feature":"7","num_nodes":"15","size_leaf_vector":"1"}},{"base_weights":[7.588099E-3,4.995106E-1,-2.9311123E-1,9.650669E-1,1.14544794E-1,1.5340802E-1,-3.8691127E-1,1.0221832E-1,4.4112712E-2,2.5725016E-2,-7.1946286E-2,7.12229E-2,-1.5482153E-2,3.555968E-2,-4.4940073E-2],"categories":[],"categories_nodes":[],"categories_segments":[],"categories_sizes":[],"default_left":[0,0,0,0,0,0,0,0,0,0,0,0,0,0,0],"id":13,"left_children":[1,3,5,7,9,11,13,-1,-1,-1,-1,-1,-1,-1,-1],"loss_changes":[1.8836166E1,8.546567E0,3.3700914E0,1.9932747E-1,3.4669733E0,2.5972476E0,3.2039309E0,0E0,0E0,0E0,0E0,0E0,0E0,0E0,0E0],"parents":[2147483647,0,0,1,1,2,2,3,3,4,4,5,5,6,6],"right_children":[2,4,6,8,10,12,14,-1,-1,-1,-1,-1,-1,-1,-1],"split_conditions":[1E0,3E0,1E0,1.5155E2,2.345E1,2.8E1,1E1,1.0221832E-1,4.4112712E-2,2.5725016E-2,-7.1946286E-2,7.12229E-2,-1.5482153E-2,3.555968E-2,-4.4940073E-2],"split_indices":[1,0,6,5,5,2,2,0,0,0,0,0,0,0,0],"split_type":[0,0,0,0,0,0,0,0,0,0,0,0,0,0,0],"sum_hessian":[1.2534976E2,4.730349E1,7.804627E1,2.072859E1,2.6574898E1,1.3438603E1,6.460767E1,1.7833544E1,2.8950462E0,2.3282608E1,3.2922902E0,4.3113694E0,9.1272335E0,4.6511827E0,5.995649E1],"tree_param":{"num_deleted":"0","num_feature":"7","num_nodes":"15","size_leaf_vector":"1"}},{"base_weights":[8.28694E-3,4.656024E-1,-2.6867607E-1,9.277487E-1,1.0186389E-1,-3.5237506E-1,1.858044E-1,1.9237688E-2,9.5551446E-2,9.178939E-2,-4.3749153E-3,2.9324297E-2,-4.1355085E-2,1.2275596E-1,-1.9296965E-2],"categories":[],"categories_nodes":[],"categories_segments":[],"categories_sizes":[],"default_left":[0,0,0,0,0,0,0,0,0,0,0,0,0,0,0],"id":14,"left_children":[1,3,5,7,9,11,13,-1,-1,-1,-1,-1,-1,-1,-1],"loss_changes":[1.577377E1,7.8007526E0,3.016645E0,2.3602295E-1,3.296579E0,2.722538E0,5.2562394E0,0E0,0E0,0E0,0E0,0E0,0E0,0E0,0E0],"parents":[2147483647,0,0,1,1,2,2,3,3,4,4,5,5,6,6],"right_children":[2,4,6,8,10,12,14,-1,-1,-1,-1,-1,-1,-1,-1],"split_conditions":[1E0,3E0,5.25542E1,5E0,7.7417E0,1.3E1,5.79792E1,1.9237688E-2,9.5551446E-2,9.178939E-2,-4.3749153E-3,2.9324297E-2,-4.1355085E-2,1.2275596E-1,-1.9296965E-2],"split_indices":[1,0,5,2,5,2,5,0,0,0,0,0,0,0,0],"split_type":[0,0,0,0,0,0,0,0,0,0,0,0,0,0,0],"sum_hessian":[1.2254917E2,4.5967503E1,7.6581665E1,1.9562222E1,2.6405283E1,6.486122E1,1.1720445E1,1.0002155E0,1.8562006E1,3.1952324E0,2.321005E1,5.285656E0,5.957557E1,2.5276597E0,9.192785E0],"tree_param":{"num_deleted":"0","num_feature":"7","num_nodes":"15","size_leaf_vector":"1"}},{"base_weights":[1.0185148E-2,4.353407E-1,-2.4552636E-1,8.920428E-1,9.506291E-2,1.6903761E-1,-3.3563632E-1,9.541582E-2,3.6608536E-2,2.247281E-2,-6.8672016E-2,6.5612376E-2,-1.1218432E-2,3.0394334E-2,-3.9213363E-2],"categories":[],"categories_nodes":[],"categories_segments":[],"categories_sizes":[],"default_left":[0,0,0,0,0,0,0,0,0,0,0,0,0,0,0],"id":15,"left_children":[1,3,5,7,9,11,13,-1,-1,-1,-1,-1,-1,-1,-1],"loss_changes":[1.3260527E1,7.0328293E0,2.9028854E0,2.8565884E-1,2.9282908E0,2.0281236E0,2.392789E0,0E0,0E0,0E0,0E0,0E0,0E0,0E0,0E0],"parents":[2147483647,0,0,1,1,2,2,3,3,4,4,5,5,6,6],"right_children":[2,4,6,8,10,12,14,-1,-1,-1,-1,-1,-1,-1,-1],"split_conditions":[1E0,3E0,1E0,1.5155E2,2.345E1,2.8E1,1E1,9.541582E-2,3.6608536E-2,2.247281E-2,-6.8672016E-2,6.5612376E-2,-1.1218432E-2,3.0394334E-2,-3.9213363E-2],"split_indices":[1,0,6,5,5,2,2,0,0,0,0,0,0,0,0],"split_type":[0,0,0,0,0,0,0,0,0,0,0,0,0,0,0],"sum_hessian":[1.1998953E2,4.480034E1,7.518919E1,1.843559E1,2.6364748E1,1.32687025E1,6.192049E1,1.5760183E1,2.6754076E0,2.32252E1,3.1395476E0,4.3687534E0,8.899949E0,4.6703095E0,5.7250183E1],"tree_param":{"num_deleted":"0","num_feature":"7","num_nodes":"15","size_leaf_vector":"1"}},{"base_weights":[1.0590478E-2,4.0531695E-1,-2.2446395E-1,8.5804343E-1,8.42218E-2,9.509976E-2,-3.4051245E-1,9.2119664E-2,3.4525927E-2,8.406393E-2,-4.9791075E-3,-6.996363E-2,1.797524E-2,-2.0225942E-2,-7.484168E-2],"categories":[],"categories_nodes":[],"categories_segments":[],"categories_sizes":[],"default_left":[0,0,0,0,0,0,0,0,0,0,0,0,0,0,0],"id":16,"left_children":[1,3,5,7,9,11,13,-1,-1,-1,-1,-1,-1,-1,-1],"loss_changes":[1.1087912E1,6.410206E0,2.8111804E0,2.776537E-1,2.798945E0,1.5213094E0,2.9608564E0,0E0,0E0,0E0,0E0,0E0,0E0,0E0,0E0],"parents":[2147483647,0,0,1,1,2,2,3,3,4,4,5,5,6,6],"right_children":[2,4,6,8,10,12,14,-1,-1,-1,-1,-1,-1,-1,-1],"split_conditions":[1E0,3E0,2E0,1.5155E2,7.7417E0,2.625E1,3.25E1,9.2119664E-2,3.4525927E-2,8.406393E-2,-4.9791075E-3,-6.996363E-2,1.797524E-2,-2.0225942E-2,-7.484168E-2],"split_indices":[1,0,0,5,5,5,2,0,0,0,0,0,0,0,0],"split_type":[0,0,0,0,0,0,0,0,0,0,0,0,0,0,0],"sum_hessian":[1.1752417E2,4.3593437E1,7.393073E1,1.7395084E1,2.6198353E1,1.9743475E1,5.4187256E1,1.4778535E1,2.6165488E0,3.1493652E0,2.3048988E1,1.2012361E0,1.8542238E1,4.1587612E1,1.2599643E1],"tree_param":{"num_deleted":"0","num_feature":"7","num_nodes":"15","size_leaf_vector":"1"}},{"base_weights":[1.0330372E-2,3.7914956E-1,-2.072454E-1,8.252978E-1,7.892194E-2,8.2694665E-2,-3.1495723E-1,4.938082E-2,9.73409E-2,4.7543872E-2,-1.583604E-2,-6.76687E-2,1.6171437E-2,-1.8470665E-2,-7.131528E-2],"categories":[],"categories_nodes":[],"categories_segments":[],"categories_sizes":[],"default_left":[0,0,0,0,0,0,0,0,0,0,0,0,0,0,0],"id":17,"left_children":[1,3,5,7,9,11,13,-1,-1,-1,-1,-1,-1,-1,-1],"loss_changes":[9.42442E0,5.770419E0,2.333886E0,3.7453556E-1,2.6295214E0,1.3580877E0,2.6736355E0,0E0,0E0,0E0,0E0,0E0,0E0,0E0,0E0],"parents":[2147483647,0,0,1,1,2,2,3,3,4,4,5,5,6,6],"right_children":[2,4,6,8,10,12,14,-1,-1,-1,-1,-1,-1,-1,-1],"split_conditions":[1E0,3E0,2E0,2.8E1,2E0,2.625E1,3.25E1,4.938082E-2,9.73409E-2,4.7543872E-2,-1.583604E-2,-6.76687E-2,1.6171437E-2,-1.8470665E-2,-7.131528E-2],"split_indices":[1,0,0,2,6,5,2,0,0,0,0,0,0,0,0],"split_type":[0,0,0,0,0,0,0,0,0,0,0,0,0,0,0],"sum_hessian":[1.1546472E2,4.2566452E1,7.289827E1,1.6418745E1,2.6147707E1,1.9808842E1,5.308943E1,6.4089117E0,1.0009833E1,9.413444E0,1.6734262E1,1.1541265E0,1.8654715E1,4.1107082E1,1.1982348E1],"tree_param":{"num_deleted":"0","num_feature":"7","num_nodes":"15","size_leaf_vector":"1"}},{"base_weights":[9.8971585E-3,3.5448137E-1,-1.9128025E-1,7.9401654E-1,7.258304E-2,1.6693144E-1,-2.7301148E-1,4.6516158E-2,9.462169E-2,1.883027E-2,-6.484374E-2,6.0059834E-2,-9.261836E-3,3.0738158E-2,-3.2761127E-2],"categories":[],"categories_nodes":[],"categories_segments":[],"categories_sizes":[],"default_left":[0,0,0,0,0,0,0,0,0,0,0,0,0,0,0],"id":18,"left_children":[1,3,5,7,9,11,13,-1,-1,-1,-1,-1,-1,-1,-1],"loss_changes":[8.004858E0,5.2151356E0,2.1810253E0,3.8710117E-1,2.3771727E0,1.6506885E0,1.9947209E0,0E0,0E0,0E0,0E0,0E0,0E0,0E0,0E0],"parents":[2147483647,0,0,1,1,2,2,3,3,4,4,5,5,6,6],"right_children":[2,4,6,8,10,12,14,-1,-1,-1,-1,-1,-1,-1,-1],"split_conditions":[1E0,3E0,1E0,2.8E1,2.345E1,2.8E1,1E1,4.6516158E-2,9.462169E-2,1.883027E-2,-6.484374E-2,6.0059834E-2,-9.261836E-3,3.0738158E-2,-3.2761127E-2],"split_indices":[1,0,6,2,5,2,2,0,0,0,0,0,0,0,0],"split_type":[0,0,0,0,0,0,0,0,0,0,0,0,0,0,0],"sum_hessian":[1.1349453E2,4.15552E1,7.193934E1,1.5527727E1,2.602747E1,1.3171005E1,5.876833E1,6.1961427E0,9.331584E0,2.3064575E1,2.9628944E0,4.4394245E0,8.731581E0,4.6551037E0,5.4113228E1],"tree_param":{"num_deleted":"0","num_feature":"7","num_nodes":"15","size_leaf_vector":"1"}},{"base_weights":[1.0442447E-2,3.2966232E-1,-1.742018E-1,7.636481E-1,6.385699E-2,-1.2603801E-1,-8.19382E-1,4.377548E-2,9.200922E-2,7.5824775E-2,-5.7460545E-3,1.03660285E-1,-1.9017445E-2,-1.743367E-2,-9.5307626E-2],"categories":[],"categories_nodes":[],"categories_segments":[],"categories_sizes":[],"default_left":[0,0,0,0,0,0,0,0,0,0,0,0,0,0,0],"id":19,"left_children":[1,3,5,7,9,11,13,-1,-1,-1,-1,-1,-1,-1,-1],"loss_changes":[6.68739E0,4.7460785E0,2.1314955E0,3.975153E-1,2.3070476E0,5.2754073E0,2.4899697E-1,0E0,0E0,0E0,0E0,0E0,0E0,0E0,0E0],"parents":[2147483647,0,0,1,1,2,2,3,3,4,4,5,5,6,6],"right_children":[2,4,6,8,10,12,14,-1,-1,-1,-1,-1,-1,-1,-1],"split_conditions":[1E0,3E0,3E0,2.8E1,7.7417E0,1E1,4E0,4.377548E-2,9.200922E-2,7.5824775E-2,-5.7460545E-3,1.03660285E-1,-1.9017445E-2,-1.743367E-2,-9.5307626E-2],"split_indices":[1,0,3,2,5,2,2,0,0,0,0,0,0,0,0],"split_type":[0,0,0,0,0,0,0,0,0,0,0,0,0,0,0],"sum_hessian":[1.114826E2,4.0565704E1,7.091689E1,1.4696868E1,2.5868835E1,6.7102905E1,3.8139908E0,5.9987826E0,8.698086E0,3.0665536E0,2.280228E1,2.7154675E0,6.4387436E1,1.0503378E0,2.763653E0],"tree_param":{"num_deleted":"0","num_feature":"7","num_nodes":"15","size_leaf_vector":"1"}},{"base_weights":[1.1400805E-2,3.0861613E-1,-1.594827E-1,7.340603E-1,6.028266E-2,1.0652079E-1,-2.6271898E-1,8.114031E-2,2.018691E-2,1.660051E-2,-6.182296E-2,4.3356095E-2,-9.044431E-3,-1.3951843E-2,-6.5487646E-2],"categories":[],"categories_nodes":[],"categories_segments":[],"categories_sizes":[],"default_left":[0,0,0,0,0,0,0,0,0,0,0,0,0,0,0],"id":20,"left_children":[1,3,5,7,9,11,13,-1,-1,-1,-1,-1,-1,-1,-1],"loss_changes":[5.6691604E0,4.259513E0,1.9754516E0,4.5050335E-1,2.0258877E0,1.3622624E0,2.3908966E0,0E0,0E0,0E0,0E0,0E0,0E0,0E0,0E0],"parents":[2147483647,0,0,1,1,2,2,3,3,4,4,5,5,6,6],"right_children":[2,4,6,8,10,12,14,-1,-1,-1,-1,-1,-1,-1,-1],"split_conditions":[1E0,3E0,2E0,1.5155E2,2.345E1,3.1E1,3.25E1,8.114031E-2,2.018691E-2,1.660051E-2,-6.182296E-2,4.3356095E-2,-9.044431E-3,-1.3951843E-2,-6.5487646E-2],"split_indices":[1,0,0,5,5,5,2,0,0,0,0,0,0,0,0],"split_type":[0,0,0,0,0,0,0,0,0,0,0,0,0,0,0],"sum_hessian":[1.0965228E2,3.973527E1,6.9917015E1,1.3924284E1,2.581099E1,1.95393E1,5.0377712E1,1.169938E1,2.224904E0,2.298493E1,2.8260589E0,6.892993E0,1.2646308E1,3.9366173E1,1.101154E1],"tree_param":{"num_deleted":"0","num_feature":"7","num_nodes":"15","size_leaf_vector":"1"}},{"base_weights":[1.0549613E-2,2.8599963E-1,-1.459963E-1,7.042E-1,5.273746E-2,-9.956868E-2,-7.815887E-1,3.6964905E-2,8.7516695E-2,1.4006543E-2,-7.5238325E-2,1.0039276E-1,-1.600874E-2,-1.598054E-2,-9.155184E-2],"categories":[],"categories_nodes":[],"categories_segments":[],"categories_sizes":[],"default_left":[0,0,0,0,0,0,0,0,0,0,0,0,0,0,0],"id":21,"left_children":[1,3,5,7,9,11,13,-1,-1,-1,-1,-1,-1,-1,-1],"loss_changes":[4.7431054E0,3.8499837E0,1.9931428E0,4.8793697E-1,1.9798769E0,4.605018E0,2.3938155E-1,0E0,0E0,0E0,0E0,0E0,0E0,0E0,0E0],"parents":[2147483647,0,0,1,1,2,2,3,3,4,4,5,5,6,6],"right_children":[2,4,6,8,10,12,14,-1,-1,-1,-1,-1,-1,-1,-1],"split_conditions":[1E0,3E0,3E0,2.8E1,3.65E1,1E1,4E0,3.6964905E-2,8.7516695E-2,1.4006543E-2,-7.5238325E-2,1.0039276E-1,-1.600874E-2,-1.598054E-2,-9.155184E-2],"split_indices":[1,0,3,2,2,2,2,0,0,0,0,0,0,0,0],"split_type":[0,0,0,0,0,0,0,0,0,0,0,0,0,0,0],"sum_hessian":[1.08028015E2,3.8847336E1,6.918068E1,1.3186752E1,2.5660585E1,6.554921E1,3.6314676E0,5.5292096E0,7.657543E0,2.3894846E1,1.765739E0,2.597515E0,6.29517E1,1.0322659E0,2.5992017E0],"tree_param":{"num_deleted":"0","num_feature":"7","num_nodes":"15","size_leaf_vector":"1"}},{"base_weights":[1.0191172E-2,2.642391E-1,-1.3344702E-1,6.758672E-1,4.5192804E-2,-2.095266E-1,2.3362385E-1,3.46594E-2,8.5091166E-2,7.3282935E-2,-5.968457E-3,-1.3686295E-2,-1.0450365E-1,1.20849445E-1,-1.4023072E-2],"categories":[],"categories_nodes":[],"categories_segments":[],"categories_sizes":[],"default_left":[0,0,0,0,0,0,0,0,0,0,0,0,0,0,0],"id":22,"left_children":[1,3,5,7,9,11,13,-1,-1,-1,-1,-1,-1,-1,-1],"loss_changes":[3.9564908E0,3.4992194E0,1.9845401E0,4.8463106E-1,1.9636842E0,3.3744617E0,4.6785126E0,0E0,0E0,0E0,0E0,0E0,0E0,0E0,0E0],"parents":[2147483647,0,0,1,1,2,2,3,3,4,4,5,5,6,6],"right_children":[2,4,6,8,10,12,14,-1,-1,-1,-1,-1,-1,-1,-1],"split_conditions":[1E0,3E0,5.25542E1,2.8E1,6E0,3.96E1,5.79792E1,3.46594E-2,8.5091166E-2,7.3282935E-2,-5.968457E-3,-1.3686295E-2,-1.0450365E-1,1.20849445E-1,-1.4023072E-2],"split_indices":[1,0,5,2,2,5,5,0,0,0,0,0,0,0,0],"split_type":[0,0,0,0,0,0,0,0,0,0,0,0,0,0,0],"sum_hessian":[1.0645746E2,3.814756E1,6.83099E1,1.2525103E1,2.562246E1,5.6938038E1,1.1371858E1,5.3817034E0,7.1433992E0,2.598395E0,2.3024063E1,5.345307E1,3.4849656E0,2.5333412E0,8.838516E0],"tree_param":{"num_deleted":"0","num_feature":"7","num_nodes":"15","size_leaf_vector":"1"}},{"base_weights":[1.0956225E-2,2.4699835E-1,-1.21518314E-1,6.481283E-1,4.318845E-2,2.0888676E-1,-2.0086135E-1,7.3538974E-2,1.1736551E-2,6.957348E-2,-6.8923864E-3,5.9090722E-2,-3.1934218E-3,-4.5724515E-2,-9.89212E-3],"categories":[],"categories_nodes":[],"categories_segments":[],"categories_sizes":[],"default_left":[0,0,0,0,0,0,0,0,0,0,0,0,0,0,0],"id":23,"left_children":[1,3,5,7,9,11,13,-1,-1,-1,-1,-1,-1,-1,-1],"loss_changes":[3.3538427E0,3.1229036E0,1.8443898E0,5.1177835E-1,1.9959877E0,1.2887996E0,1.417095E0,0E0,0E0,0E0,0E0,0E0,0E0,0E0,0E0],"parents":[2147483647,0,0,1,1,2,2,3,3,4,4,5,5,6,6],"right_children":[2,4,6,8,10,12,14,-1,-1,-1,-1,-1,-1,-1,-1],"split_conditions":[1E0,3E0,1E0,1.5155E2,7.7417E0,2.8E1,7.925E0,7.3538974E-2,1.1736551E-2,6.957348E-2,-6.8923864E-3,5.9090722E-2,-3.1934218E-3,-4.5724515E-2,-9.89212E-3],"split_indices":[1,0,6,5,5,2,5,0,0,0,0,0,0,0,0],"split_type":[0,0,0,0,0,0,0,0,0,0,0,0,0,0,0],"sum_hessian":[1.0529592E2,3.7541058E1,6.775487E1,1.191345E1,2.5627605E1,1.2803802E1,5.4951065E1,9.900242E0,2.0132086E0,2.994209E0,2.2633396E1,4.3884974E0,8.415304E0,1.4641542E1,4.0309525E1],"tree_param":{"num_deleted":"0","num_feature":"7","num_nodes":"15","size_leaf_vector":"1"}},{"base_weights":[1.1475896E-2,2.3060593E-1,-1.1056411E-1,-5.52446E-2,5.106572E-1,-6.718038E-2,-7.286727E-2,1.3493207E-2,-1.1428972E-1,6.5162495E-2,-2.7121363E-2,9.751078E-2,-1.244146E-2],"categories":[],"categories_nodes":[],"categories_segments":[],"categories_sizes":[],"default_left":[0,0,0,0,0,0,0,0,0,0,0,0,0],"id":24,"left_children":[1,3,5,7,9,11,-1,-1,-1,-1,-1,-1,-1],"loss_changes":[2.8342829E0,3.06177E0,1.7781671E0,4.219868E0,2.2972283E0,3.9850652E0,0E0,0E0,0E0,0E0,0E0,0E0,0E0],"parents":[2147483647,0,0,1,1,2,2,3,3,4,4,5,5],"right_children":[2,4,6,8,10,12,-1,-1,-1,-1,-1,-1,-1],"split_conditions":[1E0,1.55E1,3E0,1.38625E1,3E0,1E1,-7.286727E-2,1.3493207E-2,-1.1428972E-1,6.5162495E-2,-2.7121363E-2,9.751078E-2,-1.244146E-2],"split_indices":[1,5,3,5,3,2,0,0,0,0,0,0,0],"split_type":[0,0,0,0,0,0,0,0,0,0,0,0,0],"sum_hessian":[1.0403029E2,3.689448E1,6.713581E1,1.8655449E1,1.823903E1,6.3768703E1,3.3671036E0,1.6624575E1,2.0308743E0,1.5594072E1,2.6449575E0,2.4846048E0,6.12841E1],"tree_param":{"num_deleted":"0","num_feature":"7","num_nodes":"13","size_leaf_vector":"1"}},{"base_weights":[1.0099726E-2,-6.1490085E-2,3.5255274E-1,6.314585E-1,-1.19952895E-1,1.1015471E-1,1.0586255E-1,9.7050205E-2,-1.7729575E-2,-7.323518E-3,-8.368457E-2,-6.433434E-2,3.4790646E-2],"categories":[],"categories_nodes":[],"categories_segments":[],"categories_sizes":[],"default_left":[0,0,0,0,0,0,0,0,0,0,0,0,0],"id":25,"left_children":[1,3,5,7,9,-1,11,-1,-1,-1,-1,-1,-1],"loss_changes":[2.5670974E0,3.5891533E0,3.227813E0,2.0660524E0,2.6454527E0,0E0,2.8935702E0,0E0,0E0,0E0,0E0,0E0,0E0],"parents":[2147483647,0,0,1,1,2,2,3,3,4,4,6,6],"right_children":[2,4,6,8,10,-1,12,-1,-1,-1,-1,-1,-1],"split_conditions":[5.25542E1,6E0,6.1175E1,3E0,3.70042E1,1.1015471E-1,7.525E1,9.7050205E-2,-1.7729575E-2,-7.323518E-3,-8.368457E-2,-6.433434E-2,3.4790646E-2],"split_indices":[5,2,5,3,5,0,5,0,0,0,0,0,0],"split_type":[0,0,0,0,0,0,0,0,0,0,0,0,0],"sum_hessian":[1.0282623E2,8.5725716E1,1.7100521E1,5.907244E0,7.981847E1,3.3782523E0,1.3722268E1,4.021406E0,1.885838E0,7.5969894E1,3.84857E0,2.9458687E0,1.07764E1],"tree_param":{"num_deleted":"0","num_feature":"7","num_nodes":"13","size_leaf_vector":"1"}},{"base_weights":[9.806454E-3,-7.476176E-2,4.0588222E-2,2.7692184E-1,-5.7120703E-2,5.2663494E-2,7.5156316E-3,-1.890913E-2,1.9012563E-2],"categories":[],"categories_nodes":[],"categories_segments":[],"categories_sizes":[],"default_left":[0,0,0,0,0,0,0,0,0],"id":26,"left_children":[1,-1,3,5,7,-1,-1,-1,-1],"loss_changes":[2.437126E0,0E0,2.3283942E0,1.444936E0,2.37489E0,0E0,0E0,0E0,0E0],"parents":[2147483647,0,0,2,2,3,3,4,4],"right_children":[2,-1,4,6,8,-1,-1,-1,-1],"split_conditions":[6.975E0,-7.476176E-2,2E0,1E0,3.1E1,5.2663494E-2,7.5156316E-3,-1.890913E-2,1.9012563E-2],"split_indices":[5,0,6,1,2,0,0,0,0],"split_type":[0,0,0,0,0,0,0,0,0],"sum_hessian":[1.0222953E2,3.082913E0,9.914662E1,2.8464329E1,7.068229E1,1.2001124E1,1.6463203E1,4.6237633E1,2.444466E1],"tree_param":{"num_deleted":"0","num_feature":"7","num_nodes":"9","size_leaf_vector":"1"}},{"base_weights":[8.692765E-3,-1.3696788E-1,1.6146895E-1,-4.804639E-2,-1.0473057E0,2.6245734E-1,-5.417664E-1,-1.6356124E-2,4.132091E-2,-1.16523944E-1,-3.2521885E-2,5.9197515E-2,8.04583E-3,-1.5816709E-2,-6.561811E-2],"categories":[],"categories_nodes":[],"categories_segments":[],"categories_sizes":[],"default_left":[0,0,0,0,0,0,0,0,0,0,0,0,0,0,0],"id":27,"left_children":[1,3,5,7,9,11,13,-1,-1,-1,-1,-1,-1,-1,-1],"loss_changes":[2.3093927E0,4.25273E0,3.7375133E0,2.703731E0,1.9779205E-2,2.6476066E0,1.8954706E-1,0E0,0E0,0E0,0E0,0E0,0E0,0E0,0E0],"parents":[2147483647,0,0,1,1,2,2,3,3,4,4,5,5,6,6],"right_children":[2,4,6,8,10,12,14,-1,-1,-1,-1,-1,-1,-1,-1],"split_conditions":[1.55E1,1.4E1,3E0,1.05E1,2.85E1,1E0,6E0,-1.6356124E-2,4.132091E-2,-1.16523944E-1,-3.2521885E-2,5.9197515E-2,8.04583E-3,-1.5816709E-2,-6.561811E-2],"split_indices":[5,5,3,5,2,1,2,0,0,0,0,0,0,0,0],"split_type":[0,0,0,0,0,0,0,0,0,0,0,0,0,0,0],"sum_hessian":[1.01782875E2,5.2157795E1,4.962508E1,4.8475502E1,3.6822927E0,4.3941612E1,5.683467E0,3.928303E1,9.192473E0,2.6377714E0,1.0445212E0,1.483305E1,2.910856E1,1.8530682E0,3.8303988E0],"tree_param":{"num_deleted":"0","num_feature":"7","num_nodes":"15","size_leaf_vector":"1"}},{"base_weights":[6.5302593E-3,-7.1089976E-2,3.4742393E-2,2.5523496E-1,-5.5813536E-2,4.866759E-2,7.31427E-3,-1.7256323E-2,1.5994254E-2],"categories":[],"categories_nodes":[],"categories_segments":[],"categories_sizes":[],"default_left":[0,0,0,0,0,0,0,0,0],"id":28,"left_children":[1,-1,3,5,7,-1,-1,-1,-1],"loss_changes":[2.0913062E0,0E0,1.9948466E0,1.18901E0,1.8194826E0,0E0,0E0,0E0,0E0],"parents":[2147483647,0,0,2,2,3,3,4,4],"right_children":[2,-1,4,6,8,-1,-1,-1,-1],"split_conditions":[6.975E0,-7.1089976E-2,2E0,1E0,3.1E1,4.866759E-2,7.31427E-3,-1.7256323E-2,1.5994254E-2],"split_indices":[5,0,6,1,2,0,0,0,0],"split_type":[0,0,0,0,0,0,0,0,0],"sum_hessian":[1.0110397E2,2.909802E0,9.819417E1,2.8057955E1,7.0136215E1,1.1618301E1,1.6439653E1,4.563983E1,2.4496382E1],"tree_param":{"num_deleted":"0","num_feature":"7","num_nodes":"9","size_leaf_vector":"1"}},{"base_weights":[5.7147653E-3,-6.8206005E-2,3.19323E-2,2.8990427E-1,-3.25344E-2,5.616286E-2,7.0103602E-3,1.4377887E-2,-1.3379498E-2],"categories":[],"categories_nodes":[],"categories_segments":[],"categories_sizes":[],"default_left":[0,0,0,0,0,0,0,0,0],"id":29,"left_children":[1,-1,3,5,7,-1,-1,-1,-1],"loss_changes":[1.8554089E0,0E0,1.6543671E0,1.1477542E0,1.4481249E0,0E0,0E0,0E0,0E0],"parents":[2147483647,0,0,2,2,3,3,4,4],"right_children":[2,-1,4,6,8,-1,-1,-1,-1],"split_conditions":[6.975E0,-6.8206005E-2,1E0,2.8E1,1E0,5.616286E-2,7.0103602E-3,1.4377887E-2,-1.3379498E-2],"split_indices":[5,0,6,2,1,0,0,0,0],"split_type":[0,0,0,0,0,0,0,0,0],"sum_hessian":[1.0068886E2,2.778701E0,9.7910164E1,1.8876482E1,7.9033676E1,7.745761E0,1.113072E1,2.8678774E1,5.0354904E1],"tree_param":{"num_deleted":"0","num_feature":"7","num_nodes":"9","size_leaf_vector":"1"}},{"base_weights":[5.0803744E-3,-5.5034995E-2,2.9403764E-1,5.9188557E-1,-1.0847121E-1,1.011618E-1,5.515696E-2,8.984154E-2,-1.3884984E-2,-6.3465945E-3,-8.152677E-2,-6.168757E-2,2.7134081E-2],"categories":[],"categories_nodes":[],"categories_segments":[],"categories_sizes":[],"default_left":[0,0,0,0,0,0,0,0,0,0,0,0,0],"id":30,"left_children":[1,3,5,7,9,-1,11,-1,-1,-1,-1,-1,-1],"loss_changes":[1.7719952E0,2.9857554E0,2.9551E0,1.6037998E0,2.4583685E0,0E0,2.2355707E0,0E0,0E0,0E0,0E0,0E0,0E0],"parents":[2147483647,0,0,1,1,2,2,3,3,4,4,6,6],"right_children":[2,4,6,8,10,-1,12,-1,-1,-1,-1,-1,-1],"split_conditions":[5.25542E1,6E0,6.1175E1,3E0,3.70042E1,1.011618E-1,7.525E1,8.984154E-2,-1.3884984E-2,-6.3465945E-3,-8.152677E-2,-6.168757E-2,2.7134081E-2],"split_indices":[5,2,5,3,5,0,5,0,0,0,0,0,0],"split_type":[0,0,0,0,0,0,0,0,0,0,0,0,0],"sum_hessian":[1.0007856E2,8.35137E1,1.6564854E1,5.603154E0,7.791055E1,3.329238E0,1.3235617E1,3.7856696E0,1.8174846E0,7.427113E1,3.6394207E0,2.7703097E0,1.0465307E1],"tree_param":{"num_deleted":"0","num_feature":"7","num_nodes":"13","size_leaf_vector":"1"}},{"base_weights":[5.1356354E-3,-1.2019509E-1,1.3686383E-1,-3.2355063E-2,-1.0158634E-1,2.247811E-1,-4.9048516E-1,-1.2369304E-2,4.3989778E-2,2.6872326E-2,-7.659834E-2,-6.80288E-2,-1.7780468E-2],"categories":[],"categories_nodes":[],"categories_segments":[],"categories_sizes":[],"default_left":[0,0,0,0,0,0,0,0,0,0,0,0,0],"id":31,"left_children":[1,3,5,7,-1,9,11,-1,-1,-1,-1,-1,-1],"loss_changes":[1.6762601E0,4.0623107E0,2.8395648E0,2.1436598E0,0E0,2.1252623E0,2.586695E-1,0E0,0E0,0E0,0E0,0E0,0E0],"parents":[2147483647,0,0,1,1,2,2,3,3,5,5,6,6],"right_children":[2,4,6,8,-1,10,12,-1,-1,-1,-1,-1,-1],"split_conditions":[1.55E1,1.4E1,3E0,1.11333E1,-1.0158634E-1,4E0,3.13875E1,-1.2369304E-2,4.3989778E-2,2.6872326E-2,-7.659834E-2,-6.80288E-2,-1.7780468E-2],"split_indices":[5,5,3,5,0,4,5,0,0,0,0,0,0],"split_type":[0,0,0,0,0,0,0,0,0,0,0,0,0],"sum_hessian":[9.953608E1,5.1051495E1,4.848459E1,4.743552E1,3.6159744E0,4.3087906E1,5.396682E0,4.0366375E1,7.0691433E0,4.1955864E1,1.1320444E0,2.6266139E0,2.770068E0],"tree_param":{"num_deleted":"0","num_feature":"7","num_nodes":"13","size_leaf_vector":"1"}},{"base_weights":[2.4610672E-3,-6.464963E-1,2.6516007E-2,-2.3826377E-2,-7.894989E-2,2.1284477E-1,-5.010725E-2,4.361555E-2,4.5072353E-3,-1.569182E-2,1.443951E-2],"categories":[],"categories_nodes":[],"categories_segments":[],"categories_sizes":[],"default_left":[0,0,0,0,0,0,0,0,0,0,0],"id":32,"left_children":[1,3,5,-1,-1,7,9,-1,-1,-1,-1],"loss_changes":[1.5825073E0,2.3422956E-2,1.4048554E0,0E0,0E0,1.0535755E0,1.4770328E0,0E0,0E0,0E0,0E0],"parents":[2147483647,0,0,1,1,2,2,5,5,6,6],"right_children":[2,4,6,-1,-1,8,10,-1,-1,-1,-1],"split_conditions":[6.975E0,4.0125E0,2E0,-2.3826377E-2,-7.894989E-2,1E0,3.1E1,4.361555E-2,4.5072353E-3,-1.569182E-2,1.443951E-2],"split_indices":[5,5,6,0,0,1,2,0,0,0,0],"split_type":[0,0,0,0,0,0,0,0,0,0,0],"sum_hessian":[9.927556E1,2.623468E0,9.6652084E1,1.3722439E0,1.251224E0,2.7646019E1,6.900607E1,1.1173727E1,1.6472292E1,4.4669212E1,2.4336857E1],"tree_param":{"num_deleted":"0","num_feature":"7","num_nodes":"11","size_leaf_vector":"1"}},{"base_weights":[1.6554103E-3,4.655556E-1,-3.1634197E-2,6.7292225E-1,-2.7834117E-2,-9.8830275E-2,2.7965918E-1,8.24311E-2,1.0646443E-2,-5.602113E-3,-7.872539E-2,9.0957E-2,5.868747E-3],"categories":[],"categories_nodes":[],"categories_segments":[],"categories_sizes":[],"default_left":[0,0,0,0,0,0,0,0,0,0,0,0,0],"id":33,"left_children":[1,3,5,7,-1,9,11,-1,-1,-1,-1,-1,-1],"loss_changes":[1.5578698E0,1.2291906E0,1.9974697E0,3.9027476E-1,0E0,2.26024E0,2.310097E0,0E0,0E0,0E0,0E0,0E0,0E0],"parents":[2147483647,0,0,1,1,2,2,3,3,5,5,6,6],"right_children":[2,4,6,8,-1,10,12,-1,-1,-1,-1,-1,-1],"split_conditions":[6E0,3.9E1,5.25542E1,3E0,-2.7834117E-2,3.70042E1,6.1175E1,8.24311E-2,1.0646443E-2,-5.602113E-3,-7.872539E-2,9.0957E-2,5.868747E-3],"split_indices":[2,5,5,3,0,5,5,0,0,0,0,0,0],"split_type":[0,0,0,0,0,0,0,0,0,0,0,0,0],"sum_hessian":[9.892468E1,5.754136E0,9.317055E1,4.5743985E0,1.1797378E0,7.719062E1,1.5979922E1,3.2504864E0,1.3239118E0,7.368966E1,3.5009646E0,3.3406644E0,1.2639258E1],"tree_param":{"num_deleted":"0","num_feature":"7","num_nodes":"13","size_leaf_vector":"1"}},{"base_weights":[2.274975E-3,-6.2242E-1,2.5006121E-2,-2.2428839E-2,-7.6387234E-2,7.085017E-2,-2.5207332E-1,-1.8460635E-3,3.9209343E-2,-7.25446E-2,-3.1796407E-3],"categories":[],"categories_nodes":[],"categories_segments":[],"categories_sizes":[],"default_left":[0,0,0,0,0,0,0,0,0,0,0],"id":34,"left_children":[1,3,5,-1,-1,7,9,-1,-1,-1,-1],"loss_changes":[1.4290736E0,2.7671099E-2,1.2501122E0,0E0,0E0,2.417749E0,1.4358559E0,0E0,0E0,0E0,0E0],"parents":[2147483647,0,0,1,1,2,2,5,5,6,6],"right_children":[2,4,6,-1,-1,8,10,-1,-1,-1,-1],"split_conditions":[6.975E0,4.0125E0,4.5E1,-2.2428839E-2,-7.6387234E-2,3.1E1,4.8E1,-1.8460635E-3,3.9209343E-2,-7.25446E-2,-3.1796407E-3],"split_indices":[5,5,2,0,0,2,2,0,0,0,0],"split_type":[0,0,0,0,0,0,0,0,0,0,0],"sum_hessian":[9.854268E1,2.5335696E0,9.600911E1,1.3419969E0,1.1915727E0,8.3017746E1,1.2991365E1,6.5695786E1,1.7321955E1,3.3972905E0,9.594075E0],"tree_param":{"num_deleted":"0","num_feature":"7","num_nodes":"11","size_leaf_vector":"1"}},{"base_weights":[5.7280523E-4,4.384531E-1,-3.0386884E-2,6.387475E-1,-2.6134312E-2,1.9682871E-1,-1.096467E-1,7.877272E-2,1.0115418E-2,3.7114553E-2,-1.079477E-2,9.792274E-3,-2.3162853E-2],"categories":[],"categories_nodes":[],"categories_segments":[],"categories_sizes":[],"default_left":[0,0,0,0,0,0,0,0,0,0,0,0,0],"id":35,"left_children":[1,3,5,7,-1,9,11,-1,-1,-1,-1,-1,-1],"loss_changes":[1.3630763E0,1.0975579E0,1.7130744E0,3.5700154E-1,0E0,1.3495688E0,1.8020551E0,0E0,0E0,0E0,0E0,0E0,0E0],"parents":[2147483647,0,0,1,1,2,2,3,3,5,5,6,6],"right_children":[2,4,6,8,-1,10,12,-1,-1,-1,-1,-1,-1],"split_conditions":[6E0,3.9E1,2E0,3E0,-2.6134312E-2,4.4E1,8.05E0,7.877272E-2,1.0115418E-2,3.7114553E-2,-1.079477E-2,9.792274E-3,-2.3162853E-2],"split_indices":[2,5,0,3,0,2,5,0,0,0,0,0,0],"split_type":[0,0,0,0,0,0,0,0,0,0,0,0,0],"sum_hessian":[9.8564E1,5.639488E0,9.2924515E1,4.452375E0,1.187113E0,2.3648264E1,6.927625E1,3.1219304E0,1.3304447E0,1.4905375E1,8.742889E0,2.5715279E1,4.3560974E1],"tree_param":{"num_deleted":"0","num_feature":"7","num_nodes":"13","size_leaf_vector":"1"}},{"base_weights":[1.2793969E-3,-6.0830927E-1,2.3237016E-2,-2.231382E-2,-7.4446045E-2,1.7562938E-1,-6.2123843E-2,8.456092E-2,9.494799E-3,-2.7133215E-3,-6.0462225E-2],"categories":[],"categories_nodes":[],"categories_segments":[],"categories_sizes":[],"default_left":[0,0,0,0,0,0,0,0,0,0,0],"id":36,"left_children":[1,3,5,-1,-1,7,9,-1,-1,-1,-1],"loss_changes":[1.3424354E0,1.674962E-2,1.2694682E0,0E0,0E0,1.8115022E0,1.1747841E0,0E0,0E0,0E0,0E0],"parents":[2147483647,0,0,1,1,2,2,5,5,6,6],"right_children":[2,4,6,-1,-1,8,10,-1,-1,-1,-1],"split_conditions":[6.975E0,4.0125E0,1E0,-2.231382E-2,-7.4446045E-2,7.7417E0,3E0,8.456092E-2,9.494799E-3,-2.7133215E-3,-6.0462225E-2],"split_indices":[5,5,1,0,0,5,3,0,0,0,0],"split_type":[0,0,0,0,0,0,0,0,0,0,0],"sum_hessian":[9.823709E1,2.487072E0,9.575002E1,1.3387251E0,1.1483469E0,3.3997585E1,6.1752438E1,2.63507E0,3.1362514E1,5.899719E1,2.7552469E0],"tree_param":{"num_deleted":"0","num_feature":"7","num_nodes":"11","size_leaf_vector":"1"}},{"base_weights":[4.662351E-4,4.214397E-1,-2.87574E-2,3.269419E-2,8.232229E-2,-8.753948E-2,2.443862E-1,5.9662517E-2,-6.0980987E-2,-4.6804524E-3,-7.569793E-2,8.288303E-2,3.848411E-3],"categories":[],"categories_nodes":[],"categories_segments":[],"categories_sizes":[],"default_left":[0,0,0,0,0,0,0,0,0,0,0,0,0],"id":37,"left_children":[1,3,5,7,-1,9,11,-1,-1,-1,-1,-1,-1],"loss_changes":[1.2278321E0,9.849771E-1,1.5200685E0,1.9341747E0,0E0,2.0792446E0,1.9890445E0,0E0,0E0,0E0,0E0,0E0,0E0],"parents":[2147483647,0,0,1,1,2,2,3,3,5,5,6,6],"right_children":[2,4,6,8,-1,10,12,-1,-1,-1,-1,-1,-1],"split_conditions":[6E0,3E0,5.25542E1,2E0,8.232229E-2,3.70042E1,6.1175E1,5.9662517E-2,-6.0980987E-2,-4.6804524E-3,-7.569793E-2,8.288303E-2,3.848411E-3],"split_indices":[2,2,5,2,0,5,5,0,0,0,0,0,0],"split_type":[0,0,0,0,0,0,0,0,0,0,0,0,0],"sum_hessian":[9.7819336E1,5.478535E0,9.23408E1,3.3340483E0,2.144487E0,7.654697E1,1.5793837E1,1.8136231E0,1.5204251E0,7.316485E1,3.382115E0,3.326461E0,1.2467376E1],"tree_param":{"num_deleted":"0","num_feature":"7","num_nodes":"13","size_leaf_vector":"1"}},{"base_weights":[1.2889069E-3,-5.86E-1,2.21015E-2,-2.1029832E-2,-7.207461E-2,3.8241953E-2,-7.291512E-2,1.9642238E-2,-4.9400064E-3],"categories":[],"categories_nodes":[],"categories_segments":[],"categories_sizes":[],"default_left":[0,0,0,0,0,0,0,0,0],"id":38,"left_children":[1,3,5,-1,-1,7,-1,-1,-1],"loss_changes":[1.2168221E0,2.0920277E-2,1.1929673E0,0E0,0E0,1.3269081E0,0E0,0E0,0E0],"parents":[2147483647,0,0,1,1,2,2,5,5],"right_children":[2,4,6,-1,-1,8,-1,-1,-1],"split_conditions":[6.975E0,4.0125E0,4E0,-2.1029832E-2,-7.207461E-2,1E0,-7.291512E-2,1.9642238E-2,-4.9400064E-3],"split_indices":[5,5,4,0,0,1,0,0,0],"split_type":[0,0,0,0,0,0,0,0,0],"sum_hessian":[9.749221E1,2.4072926E0,9.508492E1,1.3114318E0,1.0958607E0,9.4014145E1,1.0707718E0,3.3075943E1,6.09382E1],"tree_param":{"num_deleted":"0","num_feature":"7","num_nodes":"9","size_leaf_vector":"1"}},{"base_weights":[-3.979553E-4,-1.0587313E-1,1.1050473E-1,-2.1906689E-2,-9.674219E-1,1.8463297E-1,-4.3768564E-1,-1.2069591E-2,3.60091E-2,-1.1785071E-1,-3.945097E-2,4.8706476E-2,3.4797196E-3,-6.436812E-2,-1.1221585E-2],"categories":[],"categories_nodes":[],"categories_segments":[],"categories_sizes":[],"default_left":[0,0,0,0,0,0,0,0,0,0,0,0,0,0,0],"id":39,"left_children":[1,3,5,7,9,11,13,-1,-1,-1,-1,-1,-1,-1,-1],"loss_changes":[1.1585813E0,3.6510599E0,2.0428271E0,1.8276083E0,7.743311E-2,1.9422209E0,3.33251E-1,0E0,0E0,0E0,0E0,0E0,0E0,0E0,0E0],"parents":[2147483647,0,0,1,1,2,2,3,3,4,4,5,5,6,6],"right_children":[2,4,6,8,10,12,14,-1,-1,-1,-1,-1,-1,-1,-1],"split_conditions":[1.55E1,1.4E1,3E0,1.05E1,1.45E1,1E0,3.13875E1,-1.2069591E-2,3.60091E-2,-1.1785071E-1,-3.945097E-2,4.8706476E-2,3.4797196E-3,-6.436812E-2,-1.1221585E-2],"split_indices":[5,5,3,5,5,1,5,0,0,0,0,0,0,0,0],"split_type":[0,0,0,0,0,0,0,0,0,0,0,0,0,0,0],"sum_hessian":[9.7045204E1,4.9762966E1,4.728224E1,4.627813E1,3.484834E0,4.2234356E1,5.0478835E0,3.7312664E1,8.9654665E0,1.7741244E0,1.7107096E0,1.3246558E1,2.8987799E1,2.4925845E0,2.555299E0],"tree_param":{"num_deleted":"0","num_feature":"7","num_nodes":"15","size_leaf_vector":"1"}},{"base_weights":[-1.9733403E-3,2.1615584E-1,-5.509178E-2,3.7258238E-2,4.459527E-1,-3.704634E-2,-7.16153E-2,3.5011835E-2,-1.09359525E-1,-1.3538178E-3,8.476302E-2,-1.9174192E-2,4.682915E-3],"categories":[],"categories_nodes":[],"categories_segments":[],"categories_sizes":[],"default_left":[0,0,0,0,0,0,0,0,0,0,0,0,0],"id":40,"left_children":[1,3,5,7,9,11,-1,-1,-1,-1,-1,-1,-1],"loss_changes":[1.1417707E0,7.7677923E-1,9.1843176E-1,4.6081557E0,1.5538455E0,1.0231735E0,0E0,0E0,0E0,0E0,0E0,0E0,0E0],"parents":[2147483647,0,0,1,1,2,2,3,3,4,4,5,5],"right_children":[2,4,6,8,10,12,-1,-1,-1,-1,-1,-1,-1],"split_conditions":[1E0,3.05E1,4E0,3E1,3.2E1,2.6E1,-7.16153E-2,3.5011835E-2,-1.09359525E-1,-1.3538178E-3,8.476302E-2,-1.9174192E-2,4.682915E-3],"split_indices":[6,5,4,2,2,2,0,0,0,0,0,0,0],"split_type":[0,0,0,0,0,0,0,0,0,0,0,0,0],"sum_hessian":[9.651389E1,1.8299255E1,7.821464E1,1.0942567E1,7.3566885E0,7.716427E1,1.050365E0,9.11204E0,1.8305274E0,3.8821158E0,3.4745727E0,2.6676847E1,5.048742E1],"tree_param":{"num_deleted":"0","num_feature":"7","num_nodes":"13","size_leaf_vector":"1"}},{"base_weights":[-2.664841E-3,3.9663127E-1,-3.097967E-2,5.842064E-1,-2.6136426E-2,1.63179E-1,-9.9021934E-2,7.3692225E-2,8.100526E-3,3.282241E-2,-1.2042206E-2,1.0233208E-2,-2.1892468E-2],"categories":[],"categories_nodes":[],"categories_segments":[],"categories_sizes":[],"default_left":[0,0,0,0,0,0,0,0,0,0,0,0,0],"id":41,"left_children":[1,3,5,7,-1,9,11,-1,-1,-1,-1,-1,-1],"loss_changes":[1.113582E0,9.5771444E-1,1.2300575E0,3.5409856E-1,0E0,1.1733E0,1.6801312E0,0E0,0E0,0E0,0E0,0E0,0E0],"parents":[2147483647,0,0,1,1,2,2,3,3,5,5,6,6],"right_children":[2,4,6,8,-1,10,12,-1,-1,-1,-1,-1,-1],"split_conditions":[7E0,3.9E1,2E0,3E0,-2.6136426E-2,4.4E1,8.05E0,7.3692225E-2,8.100526E-3,3.282241E-2,-1.2042206E-2,1.0233208E-2,-2.1892468E-2],"split_indices":[2,5,0,3,0,2,5,0,0,0,0,0,0],"split_type":[0,0,0,0,0,0,0,0,0,0,0,0,0],"sum_hessian":[9.640797E1,5.5224466E0,9.088552E1,4.3846536E0,1.1377931E0,2.3222343E1,6.766318E1,3.0074565E0,1.3771971E0,1.4579992E1,8.642351E0,2.5308638E1,4.2354538E1],"tree_param":{"num_deleted":"0","num_feature":"7","num_nodes":"13","size_leaf_vector":"1"}},{"base_weights":[-1.7384092E-3,-5.6613487E-1,1.8196277E-2,-2.0411944E-2,-6.959532E-2,3.3050153E-2,-6.862942E-2,1.737554E-2,-4.3916865E-3],"categories":[],"categories_nodes":[],"categories_segments":[],"categories_sizes":[],"default_left":[0,0,0,0,0,0,0,0,0],"id":42,"left_children":[1,3,5,-1,-1,7,-1,-1,-1],"loss_changes":[1.1028328E0,1.5093327E-2,1.0142981E0,0E0,0E0,1.0229994E0,0E0,0E0,0E0],"parents":[2147483647,0,0,1,1,2,2,5,5],"right_children":[2,4,6,-1,-1,8,-1,-1,-1],"split_conditions":[6.975E0,4.0125E0,4E0,-2.0411944E-2,-6.959532E-2,1E0,-6.862942E-2,1.737554E-2,-4.3916865E-3],"split_indices":[5,5,4,0,0,1,0,0,0],"split_type":[0,0,0,0,0,0,0,0,0],"sum_hessian":[9.610468E1,2.3439047E0,9.376078E1,1.2976327E0,1.046272E0,9.27581E1,1.0026779E0,3.2353806E1,6.0404297E1],"tree_param":{"num_deleted":"0","num_feature":"7","num_nodes":"9","size_leaf_vector":"1"}},{"base_weights":[-3.0972047E-3,-5.4733056E-1,1.5842482E-2,-1.9439295E-2,-6.7535795E-2,3.131115E-2,-6.32746E-2,-3.6554988E-3,2.113586E-2],"categories":[],"categories_nodes":[],"categories_segments":[],"categories_sizes":[],"default_left":[0,0,0,0,0,0,0,0,0],"id":43,"left_children":[1,3,5,-1,-1,7,-1,-1,-1],"loss_changes":[1.005513E0,1.6946554E-2,9.6719754E-1,0E0,0E0,1.146329E0,0E0,0E0,0E0],"parents":[2147483647,0,0,1,1,2,2,5,5],"right_children":[2,4,6,-1,-1,8,-1,-1,-1],"split_conditions":[6.975E0,4.0125E0,5E0,-1.9439295E-2,-6.7535795E-2,2.97E1,-6.32746E-2,-3.6554988E-3,2.113586E-2],"split_indices":[5,5,3,0,0,5,0,0,0],"split_type":[0,0,0,0,0,0,0,0,0],"sum_hessian":[9.570931E1,2.2804954E0,9.342882E1,1.2774029E0,1.0030925E0,9.218202E1,1.2467937E0,6.752607E1,2.4655954E1],"tree_param":{"num_deleted":"0","num_feature":"7","num_nodes":"9","size_leaf_vector":"1"}},{"base_weights":[-4.2095734E-3,4.8039705E-2,-2.0093474E-1,-4.086381E-2,5.411972E-1,-9.214704E-3,-6.2631285E-1,1.0937533E-4,-8.57761E-2,-3.0139504E-2,6.973428E-2,4.4519242E-2,-1.2647656E-2,-2.8567493E-2,-7.7005774E-2],"categories":[],"categories_nodes":[],"categories_segments":[],"categories_sizes":[],"default_left":[0,0,0,0,0,0,0,0,0,0,0,0,0,0,0],"id":44,"left_children":[1,3,5,7,9,11,13,-1,-1,-1,-1,-1,-1,-1,-1],"loss_changes":[1.0022793E0,3.4029546E0,1.6627393E0,2.2721195E0,1.769006E0,8.618524E-1,9.051561E-2,0E0,0E0,0E0,0E0,0E0,0E0,0E0,0E0],"parents":[2147483647,0,0,1,1,2,2,3,3,4,4,5,5,6,6],"right_children":[2,4,6,8,10,12,14,-1,-1,-1,-1,-1,-1,-1,-1],"split_conditions":[3.65E1,3.1E1,3E0,1.345E2,7.925E0,1E0,8.0292E0,1.0937533E-4,-8.57761E-2,-3.0139504E-2,6.973428E-2,4.4519242E-2,-1.2647656E-2,-2.8567493E-2,-7.7005774E-2],"split_indices":[2,2,0,5,5,1,5,0,0,0,0,0,0,0,0],"split_type":[0,0,0,0,0,0,0,0,0,0,0,0,0,0,0],"sum_hessian":[9.557074E1,7.611165E1,1.9459093E1,6.526347E1,1.0848175E1,1.4117795E1,5.341298E0,6.3025036E1,2.2384377E0,1.550603E0,9.297572E0,2.3222325E0,1.1795563E1,2.4716072E0,2.8696907E0],"tree_param":{"num_deleted":"0","num_feature":"7","num_nodes":"15","size_leaf_vector":"1"}},{"base_weights":[-5.1173884E-3,3.7673557E-1,-3.0913834E-2,-6.033898E-4,7.702646E-1,1.3619742E-1,-8.941455E-2,5.466969E-2,-5.9611063E-2,2.2500558E-2,9.2856705E-2,2.8173044E-2,-1.1504444E-2,1.0220064E-2,-2.0376751E-2],"categories":[],"categories_nodes":[],"categories_segments":[],"categories_sizes":[],"default_left":[0,0,0,0,0,0,0,0,0,0,0,0,0,0,0],"id":45,"left_children":[1,3,5,7,9,11,13,-1,-1,-1,-1,-1,-1,-1,-1],"loss_changes":[9.615646E-1,9.179001E-1,9.043058E-1,1.6795186E0,5.217576E-2,9.1209507E-1,1.5151415E0,0E0,0E0,0E0,0E0,0E0,0E0,0E0,0E0],"parents":[2147483647,0,0,1,1,2,2,3,3,4,4,5,5,6,6],"right_children":[2,4,6,8,10,12,14,-1,-1,-1,-1,-1,-1,-1,-1],"split_conditions":[6E0,3E0,2E0,2E0,2.325E1,4.4E1,8.05E0,5.466969E-2,-5.9611063E-2,2.2500558E-2,9.2856705E-2,2.8173044E-2,-1.1504444E-2,1.0220064E-2,-2.0376751E-2],"split_indices":[2,2,0,2,5,2,5,0,0,0,0,0,0,0,0],"split_type":[0,0,0,0,0,0,0,0,0,0,0,0,0,0,0],"sum_hessian":[9.5434006E1,5.178271E0,9.025574E1,3.1532319E0,2.0250387E0,2.3058743E1,6.719699E1,1.6858331E0,1.4673988E0,1.0004479E0,1.024591E0,1.4524188E1,8.534555E0,2.5154015E1,4.2042976E1],"tree_param":{"num_deleted":"0","num_feature":"7","num_nodes":"15","size_leaf_vector":"1"}},{"base_weights":[-3.4315633E-3,-5.3254522E-2,1.479126E-2,2.9311767E-2,-6.1116356E-2,6.9979555E-3,-2.1624131E-2],"categories":[],"categories_nodes":[],"categories_segments":[],"categories_sizes":[],"default_left":[0,0,0,0,0,0,0],"id":46,"left_children":[1,-1,3,5,-1,-1,-1],"loss_changes":[9.354986E-1,0E0,8.720865E-1,9.4184715E-1,0E0,0E0,0E0],"parents":[2147483647,0,0,2,2,3,3],"right_children":[2,-1,4,6,-1,-1,-1],"split_conditions":[6.975E0,-5.3254522E-2,5E0,4.5E1,-6.1116356E-2,6.9979555E-3,-2.1624131E-2],"split_indices":[5,0,3,2,0,0,0],"split_type":[0,0,0,0,0,0,0],"sum_hessian":[9.52069E1,2.2301018E0,9.29768E1,9.1800446E1,1.1763564E0,7.937036E1,1.24300785E1],"tree_param":{"num_deleted":"0","num_feature":"7","num_nodes":"7","size_leaf_vector":"1"}},{"base_weights":[-4.4882004E-3,3.5652992E-1,-2.868195E-2,5.4764414E-1,-2.6387006E-2,-7.191852E-2,1.7558277E-1,2.145329E-2,8.608358E-2,-3.1195735E-3,-7.558297E-2,7.322562E-2,-2.0918064E-3],"categories":[],"categories_nodes":[],"categories_segments":[],"categories_sizes":[],"default_left":[0,0,0,0,0,0,0,0,0,0,0,0,0],"id":47,"left_children":[1,3,5,7,-1,9,11,-1,-1,-1,-1,-1,-1],"loss_changes":[8.4980905E-1,8.691485E-1,8.164213E-1,3.3669937E-1,0E0,2.0881376E0,1.786259E0,0E0,0E0,0E0,0E0,0E0,0E0],"parents":[2147483647,0,0,1,1,2,2,3,3,5,5,6,6],"right_children":[2,4,6,8,-1,10,12,-1,-1,-1,-1,-1,-1],"split_conditions":[6E0,3.9E1,5.25542E1,2E0,-2.6387006E-2,3.70042E1,6.1175E1,2.145329E-2,8.608358E-2,-3.1195735E-3,-7.558297E-2,7.322562E-2,-2.0918064E-3],"split_indices":[2,5,5,4,0,5,5,0,0,0,0,0,0],"split_type":[0,0,0,0,0,0,0,0,0,0,0,0,0],"sum_hessian":[9.5123924E1,5.11165E0,9.0012276E1,3.9974942E0,1.1141557E0,7.4822556E1,1.518972E1,2.7536724E0,1.2438219E0,7.1604546E1,3.2180047E0,3.2516215E0,1.1938099E1],"tree_param":{"num_deleted":"0","num_feature":"7","num_nodes":"13","size_leaf_vector":"1"}},{"base_weights":[-3.3235385E-3,-5.0812025E-2,1.3628369E-2,2.7106147E-2,-5.8752935E-2,-3.125169E-3,1.817541E-2],"categories":[],"categories_nodes":[],"categories_segments":[],"categories_sizes":[],"default_left":[0,0,0,0,0,0,0],"id":48,"left_children":[1,-1,3,5,-1,-1,-1],"loss_changes":[8.277901E-1,0E0,7.7578306E-1,8.42134E-1,0E0,0E0,0E0],"parents":[2147483647,0,0,2,2,3,3],"right_children":[2,-1,4,6,-1,-1,-1],"split_conditions":[6.975E0,-5.0812025E-2,5E0,2.97E1,-5.8752935E-2,-3.125169E-3,1.817541E-2],"split_indices":[5,0,3,5,0,0,0],"split_type":[0,0,0,0,0,0,0],"sum_hessian":[9.49261E1,2.142814E0,9.278329E1,9.168269E1,1.1005887E0,6.714342E1,2.4539274E1],"tree_param":{"num_deleted":"0","num_feature":"7","num_nodes":"7","size_leaf_vector":"1"}},{"base_weights":[-4.0238965E-3,3.324081E-1,-2.6631704E-2,-2.0556226E-2,6.979465E-2,9.5128596E-2,-8.840988E-2,5.178393E-2,-5.7713162E-2,5.1071066E-2,-6.8634115E-3,-2.7430868E-3,-4.097903E-2],"categories":[],"categories_nodes":[],"categories_segments":[],"categories_sizes":[],"default_left":[0,0,0,0,0,0,0,0,0,0,0,0,0],"id":49,"left_children":[1,3,5,7,-1,9,11,-1,-1,-1,-1,-1,-1],"loss_changes":[7.3736274E-1,8.0206066E-1,6.9048584E-1,1.5206991E0,0E0,2.1450021E0,1.1777978E0,0E0,0E0,0E0,0E0,0E0,0E0],"parents":[2147483647,0,0,1,1,2,2,3,3,5,5,6,6],"right_children":[2,4,6,8,-1,10,12,-1,-1,-1,-1,-1,-1],"split_conditions":[6E0,3E0,1E0,2E0,6.979465E-2,3E0,1E0,5.178393E-2,-5.7713162E-2,5.1071066E-2,-6.8634115E-3,-2.7430868E-3,-4.097903E-2],"split_indices":[2,2,1,2,0,0,4,0,0,0,0,0,0],"split_type":[0,0,0,0,0,0,0,0,0,0,0,0,0],"sum_hessian":[9.478112E1,5.1052647E0,8.967586E1,3.0774446E0,2.0278199E0,3.0002756E1,5.9673103E1,1.599646E0,1.4777985E0,7.8819823E0,2.2120775E1,5.1068645E1,8.604457E0],"tree_param":{"num_deleted":"0","num_feature":"7","num_nodes":"13","size_leaf_vector":"1"}}]},"name":"gbtree"},"learner_model_param":{"base_score":"[3.764045E-1]","boost_from_average":"1","num_class":"0","num_feature":"7","num_target":"1"},"objective":{"name":"binary:logistic","reg_loss_param":{"scale_pos_weight":"1"}}},"version":[3,1,2]}